{"weights":[{"row":16,"column":8,"elements":[-0.17131987251645598,1.2056760251929824,-0.8962244077444188,-1.0094501837810755,-0.3256676331923316,-0.8176129145744611,0.6806282586162853,-1.6998549699783326,-0.5807560953326068,0.6421030759811401,-0.03341175946272956,-1.0264917259880609,-0.4115640327161696,0.06414602367660871,0.28032085151136867,-0.2557506099081128,0.37494138744095287,0.7114249164087436,-0.5564961973485998,0.28251621439210786,-0.7551887821128189,1.0213028720435507,0.6383847020463129,0.12606164686576228,1.0478599424085929,0.2678295538172444,0.24742207121176475,-0.7263355814056567,-0.6908389213871651,-0.15955894538051219,0.8313503657768582,0.6236695682805439,-0.791997989972347,0.8520710231602431,-1.8011293552097306,-0.2396758285563294,-0.35260679672395059,0.8506122615245069,0.1889855772619029,-1.5418163250590809,-0.38997616806090198,0.860547055854191,-0.6806236075296903,0.5113755973172309,-0.14364922776557699,-0.2793186917385899,-0.23654570079985327,-0.08020041516443577,-0.6083968349664318,-0.7404591454716591,-0.8065743728978392,-0.20403134213146213,-0.41228194630137607,-0.6725005410222908,0.6698220779513031,-0.8337494844123006,0.44607497029719309,1.2852680444148193,-0.5247865119022941,-0.1507363572723559,-1.0533469268657876,-1.1738132870233394,-0.8479623747355358,-1.041613186177483,0.012572739246616394,0.5007367999935628,1.4730843149212643,-0.6160434531877219,0.19042616774175404,-0.07129898606827823,0.2266607338266553,0.9640904068946838,-0.16256673088793506,-0.43770223113424269,-0.0252989054286914,0.9619306373155636,-0.34230688775623466,0.5144706756074391,-0.4253654549916366,0.7245126107431896,0.29968419351029298,-0.5198479890823364,0.2106982100237248,0.21055264962825505,0.13579974289866215,-0.743881969797545,0.03212352086640635,0.4688432075012603,-0.708741870884813,-0.855950204927753,-0.384848806198302,0.49726293593545548,-0.2635582685470581,0.8648721856867585,-0.14836909613589278,0.7049103934354051,-0.35817365500622069,0.7223245289746538,-0.8458831839587639,0.8774756885020985,0.28096224191985688,0.1636780894580152,-0.49142613420215888,-0.47476901330226176,0.18779290845213393,-0.07220613718139646,0.6818591040756026,-1.3770024907309182,-0.533780518006779,0.4583252800930313,-0.9481099265362616,0.748817377196529,0.34700818574494637,1.1602063269536052,1.0578380552455316,0.6694699778878128,1.1438858975269107,0.14095429225283152,0.3946576829214248,0.8179034545048796,-0.27012741095139228,-0.09256841193149868,-1.2342835500759,-0.08251327142157583,0.8016844354624522,-0.14232706257094386,-0.0706088275158292,-0.7661902785583845]},{"row":8,"column":4,"elements":[-0.1018245091494645,-0.038776671760061279,0.40501864306726756,0.10173141947002396,0.7829472198654819,0.8893342207722585,0.3363893701138423,0.7274335516461097,0.27319533661169617,-0.21166679226937558,0.5349068372939227,-0.08776224501112284,0.4019275262351787,-0.7486174373975534,1.0868188163731719,-0.11168339731908894,0.02676562185167164,-0.8368422296419054,-0.12117781612847267,1.3726857881641515,-0.4032255911970443,0.9106914894443445,-0.03871976053833226,0.43318661119251197,-0.7649872082489893,0.44783168929976915,0.14556439060535809,-0.23140250487490467,-0.34231418895990198,-0.40149920816998899,0.2985563367864059,1.6329221055057027]}],"biases":[{"row":1,"column":8,"elements":[0.3686760077129829,0.3909562910345805,0.4503979909573148,-0.30442125251777787,-0.9870192096706987,0.14009266007267485,0.13628176263998083,-0.3039022305490935]},{"row":1,"column":4,"elements":[-0.5460244035215005,0.31023966688097906,0.18833596600761649,0.45210500866594258]}],"inputSize":16,"hiddenSize":8,"hiddenLayers":1,"outputSize":4}