{"weights":[{"row":7,"column":8,"elements":[0.08955910401106593,0.556128740310669,0.35869883184422238,-0.41784666529022376,0.157960532813334,0.3022277057170868,0.0030017920756897356,1.1346934208755145,-0.48415261574817949,0.3961744034413144,1.129194905024498,-0.4423372113731219,-0.546638797645798,-0.06338801362780267,0.1706942319869995,0.3569290267628382,-0.22156920727633978,-0.3796793222427368,-0.015445757568049335,0.755807373424048,-0.5453940433653841,0.24697294815850413,-0.5529269163093706,-0.5346193673216355,0.09664264700155378,-0.12630891358277553,0.16375609981478424,0.05541525338533315,-0.7730928587896271,-0.3877663817328312,-0.9725221467521017,-0.608067595036573,0.8347552548313821,1.5839598178863526,-0.9632644653320313,0.5752389430999756,0.2062058001756668,-0.9405124746825573,-0.8405599491898244,0.8136321490312071,0.6661497538560663,-0.2768788018613648,0.8624554052549192,-0.5551497156741432,-0.5816646375704844,-0.959482001295294,0.5424312286661355,-0.6577194163241558,-0.9052082970029645,0.6733496402105415,-0.2688138968640743,-0.4309770104548427,-0.769681850526613,0.26353412973901416,0.40707256718309106,0.6968209820927243]},{"row":8,"column":4,"elements":[0.41595908999443056,-0.9012541370811644,0.4637782497870919,-0.09312424408265141,-0.5651645197936261,0.6279625877108619,-0.424305582285335,-0.5546174198132121,1.022747054407665,-0.27150974003660979,-0.14017740872469987,0.7415726525688982,-0.35912710428237917,1.0250254798844623,-0.781460206667045,-0.3016733045172222,-0.8195730357905724,0.7136563059841627,0.37514056877334225,0.039928821356020719,0.1691621038701392,-0.09341878959819106,0.7800730518418337,0.13729968871028576,0.046359427063876527,-0.8637774269918417,0.16094224161376048,-1.0050753823535157,-0.2138289213180542,-0.198747875549536,-0.8576080799102783,-0.9457900524139404]}],"biases":[{"row":1,"column":8,"elements":[-0.8594553925940005,-0.29200281545465858,-0.8670347282292106,-0.08781621381640292,-0.04227138271326503,-0.37820245045146808,0.05041060169158129,0.3625290095806122]},{"row":1,"column":4,"elements":[0.6742134368900788,0.7427676206310152,0.7530478435850094,0.6461016971076973]}],"inputSize":7,"hiddenSize":8,"hiddenLayers":1,"outputSize":4}