{"weights":[{"row":13,"column":8,"elements":[-0.0389688366596852,1.2947291319602532,-0.4015017488534607,0.06425299495458603,-0.21765280547124989,0.7267472151281853,-0.47926370519608599,0.07721952680242517,0.5872979233469131,0.741100223205625,0.21759703156757838,0.911595210029752,-0.09160389235057487,-0.3614814533354549,0.9984510780482585,-0.7098225563289446,-0.4573175130181113,-0.08843836933374405,0.1250816021029415,-0.4187934942006226,0.4819288422252619,-0.26885452281847579,0.8406575270220724,0.9155488306152737,0.897117266595032,-0.9769270636778007,-0.3324428810015396,-0.7307258362503823,0.3483626413419881,-0.22037383707035652,-0.3269552323515543,-0.6663077003860307,0.9426735346876649,-0.682364527934884,0.5997311087578936,0.5728367723914196,1.1371453458789987,-0.41508058021323,0.07027300571465656,0.8476574820194927,-0.5479830840256827,-0.6932814393710372,0.05063218789514612,-0.8080453021080682,-0.5980810974675666,0.515447071124882,0.38278815259547108,-0.9606814548742029,-2.061908372581245,-0.8404214839122162,0.36252948005309806,0.2019708582122579,0.11214509983168242,-0.3809421319581867,0.5374375051376319,0.7205646488917168,1.0471626707511872,0.538052637872795,-0.8826821348075722,0.5976668985820055,-1.1386134938016493,0.6753207681572588,0.024851393377588683,0.4113186484311484,-0.5470155287919956,-0.3488127905681102,-0.7465643708475689,-2.6626073151872378,0.45118276611956178,-0.4587144915560373,0.902739870378661,-0.1901494284859524,1.0250467300229556,0.7222981907470896,0.47308940840309057,-0.042414653514738279,0.5248109415979001,0.053841756798783,0.3325539136551168,-0.25307296573126339,-0.4581196367077678,0.3860380796605156,0.000752692089939444,-0.8927524866875753,-0.3908055419901171,-0.6881126902701646,-0.7909716474986137,-0.5202832221984863,0.8758371008725758,-0.5946227506886004,0.909513582125971,-0.04708179209390928,0.40767788625920967,0.002584431909926188,-0.4333756522839698,0.5799334645271301,0.9545507869363661,-0.3187681537884881,-0.8821195514431892,-0.7467365099031031,-0.5257594244741668,-1.1095592291771528,0.8322092773193397,0.6066669202512713]},{"row":8,"column":4,"elements":[-0.640110959998363,-0.30860025741384336,-0.17385879071037059,-1.6316751536589214,0.6540144758302509,0.11261855094931761,0.9902681146663532,0.6761865458953098,-0.49610589834313859,-0.3868204088820839,0.45424277904377066,-0.44044305902039718,-0.6902432015877453,-0.42782708194270749,0.3127401339735236,-0.34890541002279498,-0.968640196634051,0.08885656363593353,0.32363539210871386,-0.6692752571872043,0.8790969415194522,-0.7734642864605794,0.04885367576816346,0.027877082086728679,0.4895446226877169,-0.5098505765703234,0.15341744531690794,-0.6913785464845311,-0.7258930834972448,0.46017236269450648,0.1435017102503635,0.643712367896592]}],"biases":[{"row":1,"column":8,"elements":[-0.37533014671440859,0.28955578430941855,-0.9488709923828211,0.9632032233549932,-0.7843364696245345,-0.669211793302269,-0.7615529061947193,-1.1265167157738172]},{"row":1,"column":4,"elements":[0.5793301804951451,0.7156074618030297,-0.7630640628332479,0.8098547017078346]}],"inputSize":13,"hiddenSize":8,"hiddenLayers":1,"outputSize":4}