{"weights":[{"row":7,"column":8,"elements":[-0.014928793620139658,-0.5102623916344431,-1.007822130470494,-0.08751145727528109,-0.41628873348236086,-0.6463522939649815,0.1261028101718651,-0.6649662355800299,0.746265019668332,0.8027275306091894,0.81104453814332,-0.18685383405811607,1.0666922171506528,-0.8273759748948617,-1.021826386063478,-0.026684256289648546,-0.5931083765082654,0.4289069464832096,0.12869598060344956,0.7141791148286263,0.6890299031120488,-0.3239856958389282,-0.014841767625916491,0.043877850809460387,0.34734011005327877,0.10509696806710167,-0.6518605265097897,-0.46861308367197598,0.12343556538475331,0.9649848613298246,1.054397496393424,0.2915496361723502,-0.019049401390851984,-0.8364044482979711,-1.2529043707249273,-0.12000951579070574,-0.5989345426131818,-0.9197508966858905,0.748270423844076,-0.5966054877647831,0.017767632099634058,-0.7385606389818378,1.043237369082025,-0.5928748373188881,-0.4757516071577834,0.9581829967706188,0.09781287025833052,-0.7576183362496565,-0.0828294939412677,-0.08899743109941483,0.051403909634707648,-0.4957768702594456,0.17896089170819619,-0.16093285648633949,-0.1569707491633523,0.08222656541523499]},{"row":8,"column":4,"elements":[0.8875840815677902,-0.8367492191263946,0.5286042023864592,0.8745187582363698,0.747825369872964,1.1424620870283385,-0.12219550988585759,-0.04293665304292649,-0.47784969945165658,-0.5367079973220825,-0.5373610258102417,0.17812399814250758,0.4038295750425931,-0.22733582087736438,1.078870547842448,-0.17774617376318159,0.6557573131056529,-0.7940512849114221,0.07302086729048085,0.7951591825745652,0.2755559112960959,0.24681112136291029,-0.3551405668258667,-0.5535739867160281,0.12196134382186585,0.44643778507954937,0.13022138012826368,0.35075002000696556,-1.1469738179579099,-0.27401410645994597,-0.11459833669749031,-0.10640177477648083]}],"biases":[{"row":1,"column":8,"elements":[-0.597634490907289,1.0006572732174562,-0.3848948748004162,-0.4615721885854409,-0.5658789176618697,0.7752482151097446,-0.7722289709531509,0.5531902676956655]},{"row":1,"column":4,"elements":[0.2601666787041452,-0.8617372358235844,-0.6310768657471044,-0.31693134100259737]}],"inputSize":7,"hiddenSize":8,"hiddenLayers":1,"outputSize":4}