{"weights":[{"row":7,"column":8,"elements":[1.1389871752256227,0.5286777019500732,-0.2964152225626524,0.5270297124553789,1.1153623800508524,-0.379575091293451,0.3953883012793593,0.7399402365943324,-0.02530014653017698,0.026748170678331463,-0.2528724003492613,0.08222280648580771,0.2632218105532633,-0.9332263639324347,-0.19968802012658849,0.051335064646004017,-0.7550899898813057,0.9419493675231934,0.3862815926082064,-0.7111967490396509,0.2456006369404946,-0.6577202041003973,-0.37927280951571165,-0.7702729403648654,-0.7028974622401893,-0.46922327437113867,-0.29809650906621246,-0.8737559071150622,-0.6725405675884066,0.7212548028308365,-0.6832010419763073,-0.1609677955666977,-0.41155351952895816,0.6477299073992739,-0.5131403692955772,0.4165820777416229,-0.7182705599686666,-0.5757819306085352,0.8125524604802372,-0.11063056623930834,-0.38652973490902556,0.952578991519136,-0.7401120515874098,-0.6107984181688497,0.008776396801536635,0.8840475981839049,0.24170709077669806,0.7275559902191162,-0.4724849462509155,-0.8460348208765938,-0.4558513841511669,0.04985538167098191,-0.391824649153079,0.04589855670928955,0.16896939099973452,0.13837897777557374]},{"row":8,"column":4,"elements":[-0.2689670672450575,-0.725015491663541,-0.066658616065979,0.3631173161201513,-0.42338335514068606,0.29862191769565529,0.44536134707726929,-0.5129444350413515,0.7345606770715918,-0.6986921455878274,-0.44437190488980607,0.6290234941151651,0.3752779643272497,0.8915109634399414,0.7847180100599331,-0.8576498096617229,-0.1305044452772961,0.6369893052637021,-1.0576807914971056,0.09325532615184784,-0.34692788756582618,-0.22757327556610108,0.5377003141922145,-0.7841839790344238,0.003209888652470738,1.2841150760650635,0.30456780443520517,-1.6729521751403809,0.6653656959533691,0.5828087457383708,-0.7460776502960718,-0.9514590184105174]}],"biases":[{"row":1,"column":8,"elements":[-0.8118038177490234,-0.4000860634247605,-0.42359196292938608,0.1034134173122796,0.6146622933681716,-0.7515947953462483,-0.8739224382682718,-0.5741849209693406]},{"row":1,"column":4,"elements":[0.05194870431192555,0.9795463626842249,-0.043383830931547077,0.624705867245785]}],"inputSize":7,"hiddenSize":8,"hiddenLayers":1,"outputSize":4}