{"weights":[{"row":8,"column":8,"elements":[0.3692508303271449,0.5784172069367681,0.7479653823224863,0.1261540799341212,0.41715278026531879,-0.8811605151609543,-0.12926392217796946,-0.5773817759809994,0.2998656606907144,0.6066943087469494,-0.27063461651101586,0.22530996799468995,-0.2088932035049389,1.09058429434472,0.7536377787560831,-0.004213658191881464,-0.8998144474351255,0.2442566555858834,-0.9601550572825204,0.34074235060953109,0.26771015191590177,0.6304701636868542,0.07991200842851154,0.8910973437375924,0.19502781455611996,-0.5670686683567354,-0.5786240272704215,-0.14314079930924618,0.7323824160712018,1.5934805776748738,-0.9560278348636739,-0.39641920644744746,0.6986502532131009,0.1455230282614366,0.8485847506514563,0.15627856604417135,0.6523435476212312,0.9180980324745178,-0.4581187087030649,-0.7610372813618715,0.49573033783229228,0.48128181716774,-0.9286410043105366,0.5609194791788816,-0.1517677387160603,-0.5661202658072588,1.0427384618762115,-0.24096100072927485,0.6663796404164701,-1.3723529564005386,-0.3701237117985511,-0.35161098048610386,0.5057435819914575,-0.530532660174015,0.7247436632232187,-1.0919650193080602,-0.6345615863711647,0.4839573274096698,0.4275681870166146,-0.4047801984255641,-0.49840625316169176,-0.19745697934686913,-0.06585303401735132,-0.027681196788499564]},{"row":8,"column":4,"elements":[-0.44194699585593258,-0.5722904268949147,0.6722253595768652,-0.9132135290754024,-0.730339659073751,0.1943391289175187,0.43966120694956337,1.4854394589163962,0.02013814471165709,0.38548328463034339,0.05041937751068781,0.2022970125864172,-0.03997963911918223,1.211460160244041,-0.6981570034397624,-0.6660848030295679,-0.9643017811737948,1.144477652830426,0.036754450195370939,-1.2136194442249262,-0.5657606495413088,-0.29399896018440865,-0.047984030887688437,0.25892335836734406,0.36540827132762879,0.06618321322540233,-0.6640858537376957,0.936710967205407,-0.37149532193658799,0.5125885605812073,-1.1119330136237116,-0.5864398212628395]}],"biases":[{"row":1,"column":8,"elements":[-0.9053200805607578,-1.61553584887535,1.2705997759201977,-0.3395602445082462,0.7317547985629513,-0.9924848967446895,0.3993428354944317,0.5233004683034341]},{"row":1,"column":4,"elements":[0.29487621285784995,1.125486539012149,-0.8394846212196381,0.9037897754266506]}],"inputSize":8,"hiddenSize":8,"hiddenLayers":1,"outputSize":4}