{"weights":[{"row":7,"column":8,"elements":[0.16971012980200674,0.7887237406154171,-0.3456927755685868,-0.04815514385700226,-0.690961403269414,-1.2267184255851298,0.042334675788879397,0.15758195519447328,0.2698199024964465,-0.12075245044481875,0.7926685810089111,-0.9663305282592773,0.5158211027543578,0.3046010120948752,-0.2172155123059767,-0.20204662249105788,2.494830350820693,-0.2882583250279822,0.898616526719263,-0.7766347541125516,-0.3824212465486152,0.8004030329123282,-0.6950853805364723,-0.8490003775013186,0.8106747790130573,-0.027938008308410646,0.688500783388316,-0.7833140714436526,-0.731822906834644,0.29600252957323339,0.4206612744904972,-0.6352378818564279,-0.6457238509407279,0.35514765603416267,-0.52796810794,2.174832565595203,-0.012445735346945597,-0.660880029315674,-0.3720453204869041,0.5753474435616308,-0.2498945002066204,0.4795180425354264,-0.3231845367058952,0.8034083916470962,0.9579002496233606,-0.2829301601204297,-0.27032235258992368,-0.9728394308715833,-0.5815499128687751,-0.3620213626130422,-0.5878672462362218,-0.7834467026709717,-0.4488930312307602,-0.3780644236199926,-0.601287960591101,-0.01209540114783536]},{"row":8,"column":4,"elements":[0.2170858280990391,-0.046174214607081157,-0.0015553826704702845,-0.815003957363345,0.20692090236202177,-0.2780369652464074,0.048272013664245608,-0.5793444093608553,0.4222269753525243,0.695756196975708,-0.8057523452154918,0.5786949599803393,-1.0849814990026339,-0.7982059694060917,-0.040636658668518069,-2.6657395353790109,-0.6087217203425537,-0.8340382715204722,-1.0550333070886886,0.225745466777596,-0.353105387781147,0.7356928478709328,-1.0828574476509303,-0.25588673875554948,0.30518901188837485,-0.5573334435918618,0.10431678785375098,0.024620457022489718,0.83317239837797,0.9541822045590784,0.49734857120414857,0.6218006746033886]}],"biases":[{"row":1,"column":8,"elements":[0.12014026660832933,0.472018048526877,0.04184850619938629,0.3212492377609806,-0.23425411010796716,0.5029333508496026,-0.6454899051026345,-0.6746765054673096]},{"row":1,"column":4,"elements":[-0.5632238809154657,-0.11129295098005043,-1.8947595915152765,0.004932692248271309]}],"inputSize":7,"hiddenSize":8,"hiddenLayers":1,"outputSize":4}