{"weights":[{"row":11,"column":8,"elements":[-0.6434415774521718,-1.0619997022338197,-0.5493073246815321,0.40056608278262476,-0.3405706437567204,-0.6295106812277225,0.7635350266586229,-0.765621826926008,0.06022652848163812,-0.3803505257637063,-0.2595976562158442,0.550603108817171,-0.8842200500992661,-1.0268304722839473,0.7751045512912054,0.48832046631708039,0.62778422221432,0.349920751258485,-1.0179470592627689,-1.2311860515693774,-0.4673763057500757,-0.6875975273930797,-0.9887790605232616,-0.3447807704647028,-0.44033519983097416,0.6668493912680504,0.18404925223872049,0.28817424536059846,0.10587738194409968,-0.44843360866576989,0.732219272281764,0.6096867322921753,-0.04443285032347433,0.6201274339258163,0.39417888750695698,-1.1118033512341122,0.02225675100100144,0.5660213659674446,-0.9030088626196235,0.3448382788958959,-0.4431741295309095,0.5159741661105337,0.4144106782748356,-0.6419765563997579,0.42914420538292177,-0.7374446495423574,-0.5000939506490241,1.0296280321234744,0.4501537360762047,0.08656675430652072,-0.8159694925605407,-0.6030201856655992,1.2665443157470016,0.7520623904428443,0.5651676686760618,0.8734138379558729,0.52761275051843,-0.27691765935248116,0.29938872648552286,0.3945750557737553,0.7642641040561298,0.2970567543891536,0.9229063991465765,-0.18813188332050324,-0.631773457580243,0.33437916618526467,0.23397349537230317,0.9501002963010876,0.6922256078253852,-0.6793193304661003,0.04296709466083115,-0.23916038244881578,-0.07957752450595379,-1.235373122836247,-1.0551444355928106,-0.6512114736841248,0.7496525645256043,1.0441435013017886,-0.19998709597575904,-0.1993393321445982,0.37997106965025387,0.3295589837850912,-1.0215473364608956,-0.13828808250748993,-0.3043679087213196,-0.11454036470137785,0.06272141778899965,0.6532639424506845]},{"row":8,"column":4,"elements":[0.05847069485014256,0.04765281433267887,0.38219923608287589,1.0461491719450003,-0.8870541029418417,0.8073733466731524,-0.3505715149130708,0.1438726233320513,-0.390172852616395,-0.4536412164971164,0.7381207695112755,0.19910139142180695,1.0783972948953853,-0.47002977538953907,-0.39825093638312039,0.33964198420499427,0.3046873279240252,-0.9939032884265409,0.7500690607296452,-0.9512402167418941,-0.04029421967502245,0.5124208927154541,0.6596503980715411,0.9507221328629398,-0.8326004716437847,0.3561547111566341,-0.23851724293943733,-0.5355173417960177,-0.26594966948743328,0.2330221107475161,1.0413668919723974,0.1427442639764216]}],"biases":[{"row":1,"column":8,"elements":[-0.16875212775914084,0.7470964549774521,1.2553575038909913,0.08003003534597519,0.08400834234066723,0.43012072943785686,-0.23783208429813386,-0.9396411759693466]},{"row":1,"column":4,"elements":[0.7925466136754302,0.6063813682131556,-0.1376839779606711,-0.8085567302867169]}],"inputSize":11,"hiddenSize":8,"hiddenLayers":1,"outputSize":4}