{"weights":[{"row":9,"column":8,"elements":[-0.14177350201781459,0.6682553933520147,0.25707505761055757,-0.5084319475144579,0.11068120202016729,-0.43103654271914518,0.2286408708592088,0.2980407056938055,-1.0058441779232883,0.48524275766229776,0.29410447050405499,-0.7024548106741122,-1.254321040882366,0.7671700377300572,0.2563553462598096,0.4085362957299079,0.6528200274892795,-0.07622305629524062,-0.5177001064165665,-0.9889490760284891,-1.0759775638580323,-0.43077509520492199,0.39410909252702899,-0.7868047538312348,-0.8836490514449353,0.09840869961213755,0.9377821605040131,-2.677757171474175,0.19593745331655278,-0.7966311011375442,0.08138214659582488,-0.9143462490518166,-0.1839046362813348,-0.9610961089253838,-1.4092390354897547,0.8638944585303747,-0.8105641961032895,-0.09531889072746935,-1.1897838865179996,-0.2818070232818579,-0.5449475833283906,0.6867504504041955,1.028643783466439,0.3154502284713008,0.0921664975397789,0.2458604616955018,0.36091599042529368,-0.09423945383535326,0.42813609002655009,0.20867505463069548,0.7073728987093051,0.45394690269659856,-0.9305146012530443,1.5182235184451365,-1.1752598285675049,-0.03876589781107853,0.7021097848731558,-0.03527247213891438,1.0393613707158345,-0.26373433472173959,-0.25987255509876996,-2.017120989500887,1.2577800487372777,-0.42082796302890027,0.7584943787385052,1.4590635638293393,-1.307405569656309,0.26502884804074258,0.26868240052404387,0.3914911351461816,0.7135735648769687,0.32235258058729068]},{"row":8,"column":4,"elements":[0.07751364260911942,-0.9425247411245414,0.4972454331923064,0.48051918248281746,-1.1808841228485108,0.10123064326093001,-0.7867285329588345,0.21064842300558518,0.28117607361945709,0.3897862695084475,0.20104518741017153,0.4026455338493502,-0.36785976444415749,0.30988794047008519,-0.9336351280735831,1.3945532313715828,0.4042971267911941,0.10208085154925661,0.38878536851311998,-1.2912966938937785,1.1316747218193615,0.5989175608492219,-0.6790659774086931,2.9059075221532848,0.13027484605908824,0.1049100259010789,-0.16699325888887085,0.4734137770410758,0.8688352511395792,-0.25719383167643175,0.668996274471283,-0.3629921660049007]}],"biases":[{"row":1,"column":8,"elements":[0.7334065511262526,1.2595745136307999,1.1675442852324074,-0.9635595546551476,-0.49383593037695308,0.42390185594558718,0.7508180036906249,-0.4810463007422343]},{"row":1,"column":4,"elements":[0.26857864077399276,0.583567477904789,-0.4371489116212395,-1.0544319204239372]}],"inputSize":9,"hiddenSize":8,"hiddenLayers":1,"outputSize":4}