{"weights":[{"row":8,"column":8,"elements":[1.1295398952916567,0.20996049327600775,-0.13519980181663006,-0.11674394509048858,0.7501595503908276,0.0027369013548117495,0.8856547232757626,-0.2827129487841624,-0.8047435650793733,-0.8797394245208885,0.4252723305398389,-0.6351048716728522,0.323857225530769,-0.10649227636189673,0.5426077204554254,-0.045012482737278428,1.150315627925858,1.0985448159182146,0.6245519197996061,-0.5844635963439941,-0.40579149379690807,-0.3950625188878476,0.950501495555788,-0.2710475378549084,0.8791707678950798,-0.4165676441420807,-0.9379497385003008,-0.24266341126365943,0.5505236054123754,0.9321746669119939,-0.5111314389974755,-0.11053814101614446,1.2914171488267484,2.2262369254064779,1.8183057912780508,-0.8235238790512085,0.48573088403655775,0.9145838383141509,-0.7898959059170387,-0.6160469990636187,-0.5750500559806824,-0.5085605819908869,-0.9924512676004875,-0.33781315019319715,2.5691290240865305,-0.6842104828245272,-0.5427395396602752,-0.865941655890373,-0.10003108988015086,-0.6026918217799597,-0.2891729274686478,0.5817348126634969,-0.618229296322105,0.4877746764131654,-0.45390410981861609,1.0906590663807059,0.9418603583810987,0.0761534283619204,-0.754475960672979,0.21531536157966237,0.07379886952772785,0.4508786442467816,1.2053498957941336,0.8591611782317685]},{"row":8,"column":4,"elements":[-0.07864475611287425,-0.18472817539870069,-0.08394832562896659,1.2650312723110382,-0.6023344394658317,0.26649503789937137,0.4690873738097805,0.08580238464449841,0.8792847503813519,-1.5149797924812632,-0.7800071097061339,-1.097892413702263,-0.49745120507787457,-0.288573917554688,0.5604922615816226,0.020781749522358007,0.02868780042424035,0.8634437491814495,0.6293145947444812,-0.5697449438510069,-0.286049859239327,0.1263286379969979,0.4717919474752055,-0.4486312460101787,0.18341940233803823,0.29692747343983508,0.20038808848194845,0.5199109103674502,0.6863127333536148,-0.06280930280498165,0.8578211537491611,-1.1607824563980103]}],"biases":[{"row":1,"column":8,"elements":[1.0949579894494113,-0.21877669639789233,-0.669397281919874,-0.6716038343757731,0.19787753510513007,-0.6459244379905107,-0.7268284100995603,-0.7967846777690886]},{"row":1,"column":4,"elements":[0.4695155651047216,-0.5168427181536437,-0.4312319838566694,0.9843554916547319]}],"inputSize":8,"hiddenSize":8,"hiddenLayers":1,"outputSize":4}