{"weights":[{"row":11,"column":8,"elements":[-1.2832401885656806,0.43020458222887028,-0.19933032014774339,-0.6901330746184602,-0.41431902879472518,-0.8087785339775461,0.11917590406027456,1.0015124026406497,1.5530200004577637,-0.7854942681081318,-0.11847799197435105,-0.7732346729120767,0.28367013556858469,-1.2690573531313219,0.13740110397338868,0.5275398115504816,1.1372449739762108,0.7100995026086789,0.28293696184222485,0.5286889127934569,0.6898589881223303,0.03026711608409899,0.9610465186858602,1.037212377339845,0.5757168393139294,0.3297267326208071,0.8753626576506973,0.5447816957110291,0.46025231714438066,0.34953991880739246,-0.39625249312286756,-0.7419103403631171,-1.0829847042942793,0.5244820303093558,2.3648634814258226,-0.9184036482039386,-0.0953777723864615,0.12948749754018386,1.6998686453193144,-1.2108017863660224,-0.40593218299522695,-0.01578845850702308,-0.0362032717432772,1.1140992890782329,-0.4952172226043725,-0.3460232513425181,0.057016608788104109,1.3233480101204967,-0.6718994401375711,-0.3794427216053009,0.8448775699300466,-0.41233802418463308,1.2140025098367158,0.707038217665954,1.0707809015289847,-0.30665847659111025,-0.6940676630001943,-0.5561280683003764,-0.35684809222417487,1.6082784377979023,-0.5793323585886703,1.0453835491791035,-0.6198501723440233,0.4535498630653674,0.699687297945502,2.3225758795788709,-0.7096683666904227,1.078594156447261,-0.6715320398010611,-0.25359914114932116,-0.7989806629649774,0.9333608150482178,1.5951526246265129,-0.3187410828111483,-0.22409061190133573,-0.0963812836862914,-0.3151755770506455,0.1564396318898562,-0.3506883382797241,-1.066506483414464,0.7251081047521848,0.6805729354679619,-0.48716180898844776,-0.3995428057567949,1.7403971230433642,-0.9314250369424588,-0.12352724532106585,0.16816891097548299]},{"row":8,"column":4,"elements":[-0.3406389380717785,0.5978851611306342,0.9344437551827598,-0.5849060417435772,0.42128906914412225,0.8110069389379104,-1.5737307834098005,0.4921680122310832,-0.6868823198146297,-1.8810527324676514,-0.8063881239794407,0.6732279710315616,-0.5181759223744327,-0.2819174252864064,-0.5667409319378896,-0.2938307245571663,-0.6041976517107921,-0.49700455810523938,-0.5355617795625826,0.41523239398394909,-0.8359775334282724,-1.2935410567836146,0.4075078642018161,-0.3290322131266543,-0.3730051076328067,0.5604212534212674,-0.8258094466703464,0.34125744220782497,1.2159254504490367,1.0595933143927444,0.30687415368436446,-1.6991224318480196]}],"biases":[{"row":1,"column":8,"elements":[-0.7213839292526245,-0.07567738539835123,-0.06160793354367966,-0.7991486113307809,0.7099855915345237,0.44223902318284438,0.6546435652765055,-0.4699196118132116]},{"row":1,"column":4,"elements":[-0.4968402524293851,1.1800822349333938,0.8280193768926703,0.1327859391894144]}],"inputSize":11,"hiddenSize":8,"hiddenLayers":1,"outputSize":4}