{"weights":[{"row":11,"column":8,"elements":[-0.2907288668296649,-0.7746390200244342,-0.4135514999947203,0.49207629713937886,0.6896073860679195,0.8873106325102822,-0.23108341918336307,0.7697026018085887,0.24167561709355835,-0.5591465760632874,-0.07427490129740555,0.2656484720251342,-0.9052226887560244,-1.2869780306645975,0.7592652320277855,-0.5761039602600185,0.016456385793653717,0.6107251141893393,0.09876936188700159,0.6350415829334595,0.9275562658790713,0.24508534371852876,1.2598075166452106,-0.05237494661677822,-0.5263937531155851,0.7891316809589457,0.8591600698951503,-0.0011363486101769738,-0.04740202238919844,0.426430057151861,-0.4727045994770702,0.35699990277946228,-0.16865028586924869,0.2800291597325133,-0.8708282671918823,-0.5766087922562955,1.029024728091727,1.2296593810542152,-0.6063757254605768,-0.1764188546672134,-0.23110748203263399,-0.5154534543237714,0.6035696710439603,0.8705161464015045,0.1818362747959899,0.20570874099955573,-0.5368290747591171,0.4485977694434471,-0.858144554946044,0.11837621399340234,0.5501524654000374,-0.4197114408685021,-0.3783215732266285,0.17404507989828844,-1.171331856767984,0.49350156060154939,0.28314162345773988,0.05723673416657249,-0.7854190401567385,0.709499716758728,1.259602200657731,0.2313706569023033,-1.0373143124482987,0.590139960119437,0.387970517912807,1.3051246636407728,0.24422545933932228,-0.2707959547284622,0.43352718426785588,-1.2813970967656079,1.0346793419654699,-0.5368972558133569,-1.1357102394104005,-0.04658437384912384,1.032876469813654,-0.5161351406661217,-0.906869103164373,-0.5194691403338458,-0.30224303870435517,-0.38230671490929249,-0.9688583617275959,1.1248890901739639,0.22758233312501376,0.4167433928887867,-0.9624570135563912,-0.9145627319253178,-0.19426457790194408,-0.5976132828520171]},{"row":8,"column":4,"elements":[0.37902934828598,-0.8404585146069126,0.9062456572017115,-1.4810921942113034,-0.6669025902657888,0.25028243593285906,-0.7762946207421333,0.44073796493309205,-0.08054008949080904,0.07303100194029044,0.4600987732410431,-0.24523260055934438,0.9595720705265918,0.8859252746181303,-0.9082450213766808,-0.7482336024888951,-1.139015347858221,0.4157951932322339,0.4486134295799782,0.7055286606623963,-0.6337938893160087,0.5582509767634747,0.19219171416754744,-0.5192504525184631,-0.4353295614633428,-0.4540676863094202,-1.063322214917906,-0.2061621154929078,-0.45337683383042129,1.0518518831606612,0.2546950034779457,-0.37147995284108328]}],"biases":[{"row":1,"column":8,"elements":[-0.3094942505905154,-0.7715753062542468,-0.2892862658381814,0.5053356042110107,-0.058732376535744149,0.12911130222446028,-0.17662286236102088,0.4252720733823625]},{"row":1,"column":4,"elements":[0.8442423984590364,0.6696910649392149,0.3041805102483956,-0.4616505757368987]}],"inputSize":11,"hiddenSize":8,"hiddenLayers":1,"outputSize":4}