{"weights":[{"row":11,"column":8,"elements":[-0.897846002870037,-0.003955978816374994,0.6652771507447994,-0.9607459401406135,0.06715565072340013,0.17390490690851835,-0.9261986303909353,0.3900200128677085,-0.26656215910943628,0.051946718245744708,0.06788769611840806,-0.9781741351766691,-0.17695381063619565,0.7846049988712185,0.4559324601647994,0.4122671230986581,-0.2396020732495856,0.5263290916547412,0.2601423859695302,0.7074214767616986,-0.1942714577729916,0.9483064964316306,0.49891960724958486,-0.6253544130571624,0.41404535461656169,-0.12466367836486669,-0.0926868181007734,-0.05769494023289212,0.7420020040011739,1.0373925161732674,-0.4722158924836961,-0.40023040603259366,-0.6257562543800868,-0.3796786521200701,-0.7530691661384443,-0.4611344635486603,-0.8407011032104492,0.19119761591598739,0.48207067589286547,-0.8448300277058198,0.098852979832877,0.11862643786213578,0.6597473634084423,-0.03422489416958663,-0.45756252917158948,-0.003715368419314302,-0.7726255905354762,-0.07300123967179673,-0.2124828733702906,0.8253632805737059,-0.18862424197968065,-0.593874055925788,-0.014189842979747347,0.048031255851864077,0.9433257960935915,0.671359459097248,-0.5436621465429479,0.7300678479851932,-0.3442843023097222,0.2301599104457751,0.6343886782198158,0.34743941696093919,0.9784745978264002,0.22074843910683929,1.1750712113380014,0.9751430972123485,0.7073080539703369,0.4715389017578282,0.4427151272174399,-0.7409171426663583,-1.9106323805450956,-0.5268060026911527,-0.23356949357346935,0.988615872005331,0.3405829942357701,-0.21624475717544557,-0.805981457233429,0.46523682435579696,0.3789741493271803,-0.7674924526698455,0.2019863702761704,-0.2356427470058664,0.26371757340317539,-0.5831815464186967,-0.872151585140486,0.7288837200104545,0.4889179182607357,0.7272930730356606]},{"row":8,"column":4,"elements":[-0.6140762110277453,-0.7392933532244204,0.39491838420776395,0.15094125441926033,0.18700697059955563,0.7995967359696867,1.0284382209471837,-0.8372245730300598,0.7130059548890806,0.05396263757903874,0.3696012213912745,-0.6692394175343992,-0.28811882547411296,-0.3594168852900115,1.1281939999407449,-0.2009519338607788,-0.018668537296985478,0.41481244115816998,0.16355411582156255,0.6561848401938573,-0.8255548394893868,-0.843808634958993,-0.925002904976469,0.08766999766794115,-0.28975102400460286,0.012518167406558645,0.8298884914361544,-0.2020179945906424,-0.02535548265071741,-0.05909522674427947,0.1509786687981567,-0.15403786407027376]}],"biases":[{"row":1,"column":8,"elements":[-0.8492739844171648,0.05555223161086431,0.22158123737245284,-0.7008363738709562,-0.41420380574103668,-0.8026011289702488,-0.7486209459136788,-0.21346691519671347]},{"row":1,"column":4,"elements":[0.22743630545367167,0.6103768836508472,0.4099563130309225,0.7589356669824312]}],"inputSize":11,"hiddenSize":8,"hiddenLayers":1,"outputSize":4}