{"weights":[{"row":13,"column":8,"elements":[0.648104564269339,0.42073452483835585,-0.6395999171695909,-0.720538822512345,0.23897246314151134,0.9275162728653078,-0.7445368504881509,0.5759611744009039,-0.09803851693868637,0.8404287928600943,0.3374858502416212,-0.7517385103577079,0.7030528906904977,-1.2304609776748866,-0.6911905516385319,0.9402812309698254,-1.0205385686265492,0.16900778777864657,-0.8817500989214809,0.5385762070895313,-1.1053798024896709,-1.4860075612601587,-1.4623582363128663,-0.18481459191039618,-1.602744663772524,-0.8930555106058518,1.2639658446192544,0.6866483804748893,-0.9658722279961034,0.3666055546674156,0.5244882161017351,0.2273360564704478,-0.8713034531962397,-0.5404060214008297,-0.1645124951891877,0.5392320840759024,-0.049175413229137657,-0.5342478769684975,-0.8551490269188725,0.9829990627354004,-0.1671804553393419,0.6015227129700476,-0.5649419876499762,0.45107631574771808,-0.5825813188561975,0.528236542251792,-0.5900003462754775,-0.09937200603918067,-0.04423073864274141,-0.29918336482385779,-0.6049453677184622,-0.31621424920829768,-0.8909500370464326,-0.5820346550491805,-0.10198465180796085,0.7430675129607279,0.48475552705093108,-0.5666610285918764,0.3754630720049748,0.9029501499984797,0.49468801146896038,1.3213599061249557,-1.0907409191131592,0.7586167352670398,-1.5592477455701959,-1.0380967881147612,1.5074697088831549,-0.3698391663386609,0.8107254552600649,1.2411990575849284,-0.8903121199216684,0.24682561661172948,-0.3226122260093689,-1.0268538135942318,-0.5214260307849769,1.2616770825354514,-0.21064822253369665,0.8071686993318605,-1.1811948099206189,-0.3633314335889278,-1.3534308346103435,0.7388895822385861,-0.4875911103255747,-0.4866415223025009,0.2136237647035628,-0.2955094070789519,0.5960921666291154,-2.0291277750569387,0.7967602399159307,-0.8145944164138341,0.36268365383148196,-0.6967109531072155,0.6443126862526314,-0.41916623600052707,0.7742153556039909,0.06245485012471111,-1.2783834277427442,0.7339172807287825,0.2160666197607809,0.4887968052267205,0.4838056007715418,-0.4423955267999542,-1.3653873596695654,-0.9195868372917175]},{"row":8,"column":4,"elements":[-1.3496416807174683,-1.3291910517431378,0.3890627355188032,-0.6182481050491333,-0.32074558144510736,1.1005106952043283,0.6122409931809125,-0.8445007581694832,-0.7858910012031644,1.1900914208829976,0.09366635114364666,0.4761509386649332,0.4321977289971454,2.048878645410775,-0.07640407788766424,0.006578214574557831,1.0093455558992004,0.13734086325292528,0.7181087977835556,0.7233330109558277,0.3612063779620637,-1.8672172044886984,-1.2155792429779549,-0.7866839832672407,0.0658932825034827,0.4780350923538208,0.9318771086071191,0.21478037806429874,0.3618496997301385,0.21452508474533284,-0.015326775989232822,-1.09518794032104]}],"biases":[{"row":1,"column":8,"elements":[0.3827126455691322,0.32700005856530547,0.6431554067107196,-0.17117814225781598,-0.19345331960970298,0.643768783812204,0.34742262959480288,-0.9031284362388484]},{"row":1,"column":4,"elements":[-0.4128934894062541,0.08665995793033765,0.3853642063260332,-0.41013755912508606]}],"inputSize":13,"hiddenSize":8,"hiddenLayers":1,"outputSize":4}