{"weights":[{"row":12,"column":8,"elements":[1.1508963466464302,-0.9798098734617735,-0.5623724776587293,-0.4591722702984418,1.3034977491577307,-0.7445687558879577,-0.2914200760061698,0.3420727727015196,-1.332225913340495,-0.6591627151636013,1.1360982808888039,-1.5327829494602146,0.5760725281757986,-0.4304353069076745,0.43583923940258009,0.2408491614697379,-0.8661375039703807,0.6427982678240655,-0.024874105855860586,-0.14771295884405756,0.1413576408819619,-0.5578899874246978,0.4808293400768766,0.0404191231247667,-1.290786354472777,0.6170174478227097,1.698304178467902,1.62859657813339,-0.3456204285287825,0.2175537597950244,0.741693397999706,-0.802742709518057,-0.09997802531015854,0.6824080348014832,0.9495550895181659,-0.7905438425384617,-1.0838003884530399,0.9702741564290278,0.8004012824501734,1.157024930558907,-0.7140822410583496,-1.226760060519437,0.47219089151173568,-0.3295432351758514,1.5633083356222138,0.5876712917642031,0.49245812382532608,-0.4229157986435269,0.23097897103047505,-0.9027208306607815,2.934609723485393,-0.06007628362374895,0.4047321081161499,-0.013245895279481945,-0.6688286169104929,0.4741288971563815,0.23862365783770279,-0.85269361283728,0.7208310887261997,-0.05374055864505145,-0.44627798012548328,0.4170894824702547,0.275754478595406,-0.2593571592674646,-0.7650223494801836,-0.1258184963872111,-0.11153095444496097,-0.19316507466898615,0.06628217726096564,-1.5278185177052315,0.24854854288032114,-0.7771948399912709,-1.1706568694147102,1.0853448305061555,-0.7928168661217185,1.0814505132605126,1.1056298447660538,0.33655951796139407,0.3272152245044708,0.11275425429921127,-0.3854102179619936,1.1424204869566664,0.7849766686799036,-0.26567489140713587,-0.5157989859580994,-0.6590154373804982,-0.48892780006875827,-0.5949522174653907,0.19531294703483582,0.28866586742472757,-0.3682740256773871,1.0140865024204438,-1.1090576001038944,-0.5741142296858026,-1.7084540602786145,1.0752747873234796]},{"row":8,"column":4,"elements":[-0.17001815986269709,-0.9546887917095626,-0.03708090039907774,0.7143705297493967,-0.48960354443775,-0.16876913271438188,0.07957935997034715,0.39962035322328495,-0.8991359147254427,1.0069743954685935,-0.9268592622813641,0.840196918932357,0.3092275832983731,0.4538982879928602,0.3292847588971899,0.544960737823827,0.9727399823306531,0.7486864276125324,-0.5968764998483269,0.08285253463781374,0.5905046802088509,-0.37708476008747118,-0.2633302572727869,2.185893725748725,-0.8120724350412352,1.7732490220867892,0.8298214786253927,1.7930376595778537,-0.646384248313737,-0.0021320372252651156,-0.838026757839855,-0.9530893195341654]}],"biases":[{"row":1,"column":8,"elements":[0.11285633286891983,0.014510714376422318,-0.08161233199998108,-0.7379871170967827,-0.8577701971570488,-0.9874401092529297,0.06846351804933892,0.04337939318473438]},{"row":1,"column":4,"elements":[0.09592024644219333,0.5335400035345304,0.42186238710964898,-0.7842732197399318]}],"inputSize":12,"hiddenSize":8,"hiddenLayers":1,"outputSize":4}