{"weights":[{"row":11,"column":8,"elements":[0.17888368439258074,-0.24929815359496389,-0.129039066644264,0.9006511553058294,-0.3830129632155739,-0.22522901257443096,1.1781267820909474,-0.22862973572437984,-0.3134819120225325,-0.9124090232348543,0.47414415161799186,0.23263948962769732,-0.41485652524613317,-0.5484854519915068,0.7442159206963765,-0.21296880965114974,0.09239753037352894,-0.48538271760590848,0.701158065091358,0.2925409450986667,-0.14345581921548734,0.32531936662443075,0.4398528046374022,-0.23661632932595468,1.9365433542361994,0.7600967208399787,-0.6857160219445007,0.6293264011956365,0.21987391974550619,-0.7069280661621074,-1.0093284096596769,-0.228049195453071,0.599383636444478,0.6160035324225746,-0.533453692853934,-0.19175924360752107,0.4319141650423255,-1.6178654432296754,0.8144458357833742,-0.9507751549265429,-0.4649623234573088,-0.24068086822173385,0.8751711460366101,-0.7580900710999545,-0.0821756513583054,1.2205927044512546,-0.7202243927696674,1.0242158208531889,-0.31722323471818827,0.7538855181700557,0.26554665120361067,0.41820166344263756,0.18741494009829297,0.03539044627501653,0.9399188499739033,-0.8328810162520153,0.15613818386909629,-0.29007148966374177,0.3825972378253937,-0.3932654645516269,-0.27064790144990327,0.5767696938315154,-0.12640997760781404,0.4432679116553544,-0.5829479392426187,-0.14051486910124567,1.1932247877120972,0.009696819689100522,0.6046927028752478,0.3473536719097896,-0.055064664662248578,-0.13014723384262529,-0.5407677020382202,-0.9593022439092991,0.737198531627655,-0.5168735980987549,-0.10488323902114871,0.747068789690351,-0.2383205681080316,-0.002949741540938078,-0.6886529932800549,0.9977404306956625,-0.03761518876575931,0.6972544268712354,0.019566347069048363,-0.028063015215328947,0.01832641544502009,0.6734304351783775]},{"row":8,"column":4,"elements":[-1.4292982988236727,0.4206594794329739,0.5104209837660658,-0.44514551474459376,-1.6757006515929352,0.0283824654449214,-0.7236930175838428,1.1793879140844963,0.14574474601178956,0.023712493086499366,-0.9943214714845112,0.7174340322597406,0.5183538124743397,-0.013396311265944983,-0.6606154667244688,-0.558911261016652,0.7723694317980666,-0.07174829729590005,0.7317618390641769,0.7510531963028946,-0.16653207620553579,-0.8546281260509723,-0.01180121103633347,-0.7681235006577025,0.4503229444629895,-0.10923614712928043,0.2012929614286718,0.3589566134956394,-0.3348525395187427,0.006068701000145893,0.4434921750879248,-0.6483257477235758]}],"biases":[{"row":1,"column":8,"elements":[0.9958801189022495,-0.5048901977229274,2.21545692995781,0.28975867881689867,2.204816622275577,-1.2267076922338092,-0.8005299165718824,0.5363578379369214]},{"row":1,"column":4,"elements":[0.022714136751752269,0.18346679643738418,-0.23018994951295469,-0.28107849759039996]}],"inputSize":11,"hiddenSize":8,"hiddenLayers":1,"outputSize":4}