{"weights":[{"row":11,"column":8,"elements":[-0.5733291116212593,-0.8990605643727427,0.2935762252646299,-0.8023003690165647,0.16522445474775394,-0.14869889453415092,0.6032156653464691,-1.573520351156939,-0.004155714417647616,0.10540010048507398,0.5330999624347461,-0.22077343438040399,0.8709885055987221,-1.1409291939321414,0.5248820328860533,-0.25524615256592778,0.2805096708637639,-0.6612448903475405,0.04015506370934219,0.9230621254291647,0.8841824712717932,0.3676774585913409,-0.6774938873020391,-0.9722480459778291,0.18245825385246484,-1.089037479720309,0.6508449360948022,0.08091413533786174,-0.8773797943058241,0.016068101056986529,-1.2947987151479175,-0.24711013064401245,-1.194108612211771,-0.07725605546457648,-0.7692633736856721,-1.3778171343870745,-0.5075050848183587,0.055876332119963127,-1.074722919590453,-0.9005727942858535,0.2078885295238183,0.8957971144394978,-0.8245322646973352,0.1512209047753328,0.1924599057393217,1.6156884099489653,0.5091416938721467,-1.881042213379395,0.6482352368513595,-0.2576670586272103,2.193184210643732,1.0414551097028587,0.39616674916946417,0.752603187031097,0.7199846506118774,0.04270172551534568,-1.4845885843391904,0.7431629453259818,0.4181507154361208,-0.730969992684849,-1.4641493119100795,0.09900125166065443,0.2914539410333401,-0.3573313050331208,0.6570245448958648,-0.09531084785274402,0.04846495951929697,-0.03660888679151775,-0.9731856293960157,-0.10237915525648322,1.112482990445132,-0.03969848658971553,-0.4664802852834393,-0.18330840329938526,-0.4403405441324184,-0.04415512708390246,-1.6649349117890738,0.20213425106518469,0.1792857949019533,-0.6595095443083618,-0.4182802467576416,0.30940974637287868,-0.8843983395907422,-1.444028542501119,0.6799056246012349,-0.26821598410606387,0.21122350200503704,0.747090045170772]},{"row":8,"column":4,"elements":[-0.7571484359725247,-0.4844989687890111,-0.0027533271191018118,0.15203680779773499,0.3637045681938571,-0.3500245558636452,-0.042799811810658287,-0.5268035378513751,0.3189541177324674,-1.728916512701288,-0.4893508688388586,-1.2230369782283349,-0.5630934102685404,0.055252393377728029,1.4609865366292814,0.3105749726399898,0.720818521428642,0.6165258918200838,0.731569936411935,-0.46880607262146736,-0.8282605940282517,-0.4044355989808954,0.05548145412815142,0.4374497037093219,0.31209132973770617,-0.9046740369880295,1.328996139584473,-0.6513193077354424,-0.04356789575583542,-1.191910887531312,0.6201006719319917,-0.050106074124632197]}],"biases":[{"row":1,"column":8,"elements":[0.38270215775354546,-0.4026739955330214,-0.5677056099000817,-0.33155445815497766,-0.7683721936296437,-0.1558653779582011,-0.7232707340643909,-0.10953258426881119]},{"row":1,"column":4,"elements":[-1.3082698639580884,-0.6262066686281749,0.8477143427660394,-0.6796933020490159]}],"inputSize":11,"hiddenSize":8,"hiddenLayers":1,"outputSize":4}