{"weights":[{"row":7,"column":8,"elements":[0.5157794931270839,-0.2008835914273952,0.5702949204857148,-0.030254688971655953,0.8757220774261132,-0.4162326772543139,-0.7165407376127106,-0.22688780690453748,-1.1632741389964996,-0.6342430870242506,-0.6504742896206626,0.9515860780364029,1.1660738291932998,0.26075372374406138,0.7992093417248771,-0.23524903049307256,-0.5852855680142888,0.6764031618632586,-0.5951913052941498,0.15928627575902433,-0.5207603034400155,-0.46245057971940009,-0.8446592746074435,0.2614784252845421,0.6711997863632284,0.9371498858952005,0.014700839623509765,-0.0795219595443859,0.699628378311008,0.7049024733908418,0.5415315078865488,-0.0026078861119032128,-0.9418539124994165,-0.17626031820536038,0.2603023126039701,-0.3274621267444302,-0.41012171657996179,0.2578261062214411,0.8349109064921239,0.812900187486762,0.7468312686686581,0.07120748424349444,-0.4097496006387473,-0.5736664575921036,0.37279327628290406,-0.11879681365482853,-0.07148437941184938,0.39971552347703467,0.3229391044015458,0.8190438661283324,0.4743651071328472,-0.19474124283342499,-0.7475675895415108,-0.36418923842260755,-0.1030497736834306,-0.9169299024041493]},{"row":8,"column":4,"elements":[-0.1346230709414824,-0.9008487930369933,0.6867060449367717,-0.6615059648616468,-1.0400109947018495,-0.67788469448063,-0.9721368344636954,-0.9552098379719913,-0.39417391220580458,-0.998482128522107,0.5407783864852886,0.007539624348282814,0.14454668598030907,-0.1329226225982474,-0.9752094937797491,0.5527039848244257,0.6183080486932848,-0.20981284028376735,0.27320776286311246,0.34950279312162815,-1.472357442634297,-0.27895428671708,-0.3379741415482531,-1.0301647186279297,-0.7617742342636996,0.6066602775303451,1.0414384088315246,0.0858264272505096,-0.19899727389017575,-0.8243718147277832,-0.9113492145873536,0.9294269222961606]}],"biases":[{"row":1,"column":8,"elements":[-0.25597552611547638,-1.280788540840149,-0.7958361439137383,0.6015521815657916,0.3877146602290569,-0.5154008434648745,0.849624925874064,0.9832048604611856]},{"row":1,"column":4,"elements":[0.4173404311330309,0.511033996070239,0.0915915240350671,0.8157916069030762]}],"inputSize":7,"hiddenSize":8,"hiddenLayers":1,"outputSize":4}