{"weights":[{"row":9,"column":8,"elements":[-0.1683355100447419,-0.33754659013353729,1.2523341344312143,0.05416490843763544,1.0154735979564363,-0.7460512776587942,0.33340595407317777,0.8957011663555541,-0.5367112488402455,-0.635020061326669,-0.2249354755375249,0.41757553717624287,0.3066932159292364,0.7539672270526923,1.1164335482787947,-0.5743567790105523,-0.220537632496975,0.4445804061688703,0.5500378862795978,-0.52359797941377,-0.6420445179727093,-1.128238294753892,0.6189647868860568,-1.0761892069482216,0.42771704426713699,-0.1956261794962426,2.081577059363253,-0.23617947384539973,-0.9427463420384712,0.607751789470512,1.5274904767016673,-0.4842663046579605,0.9899625502662506,-0.33470991742152497,0.7678533447046037,0.8493582078467101,0.5813638373199517,-0.5939221925798197,-0.35370340862692198,-0.49623909846219629,-1.0261151633559012,0.6436981280217219,1.0468991528698233,1.2219085512589314,-0.49769848747259806,0.5487961867951068,0.4044098064402819,-0.04635964072271204,-1.187102812881676,0.796681817175493,-0.8949457246654049,-0.5036259706683861,-0.10437171824060876,-0.42390077707297815,0.0015440122774101895,1.4132476716537906,-0.8443689031642587,-2.4838229635933164,-0.42306159035112458,-0.45483180352640487,-0.602545387179287,-0.29589503175314138,1.6642148620718036,1.3181365497777483,0.26016693560512818,-0.8473706069185693,-0.9116800274664716,0.7126687172858106,-0.2151804710966665,-0.1900870378294499,0.554177041857109,0.2289877970122467]},{"row":8,"column":4,"elements":[-0.37149310307337415,-0.896916655451566,0.8094452918272683,0.6276436700494767,0.8451204297617512,-0.8802321777749258,0.11171626848463276,-0.18773881531676563,-0.34837079363905945,0.6755699227674694,-0.18504804082207983,0.48754651365021176,0.38816646551282965,0.8610542532876533,-1.2440438921204123,1.867304691329732,0.6935271940293668,0.6615716854838536,-0.6297642102905696,-0.8400863324752645,-0.5386568541768915,0.16979424451115844,0.4351583964024561,-0.644467680696291,0.04289076760019017,-0.7547211907943849,1.0243314651854985,0.6317728268656531,1.0439026830000109,-0.898347901286618,0.5536661248697268,0.795513615258232]}],"biases":[{"row":1,"column":8,"elements":[1.0671286308079704,-0.09288660537000586,0.09446991279169181,0.026023783366441179,0.15022616240700338,-0.7124854467687314,-0.34653447831494318,0.8354498731087567]},{"row":1,"column":4,"elements":[-0.3246460555335684,-0.024122495101067899,-0.0635261091581496,0.9199706743168949]}],"inputSize":9,"hiddenSize":8,"hiddenLayers":1,"outputSize":4}